<?xml version="1.0"?>
<opencv_storage>
<my_svm type_id="opencv-ml-svm">
  <svm_type>C_SVC</svm_type>
  <kernel><type>LINEAR</type></kernel>
  <C>1.0000000000000000e-002</C>
  <term_criteria><epsilon>1.1920928955078125e-007</epsilon>
    <iterations>1000</iterations></term_criteria>
  <var_all>3780</var_all>
  <var_count>3780</var_count>
  <class_count>2</class_count>
  <class_labels type_id="opencv-matrix">
    <rows>1</rows>
    <cols>2</cols>
    <dt>i</dt>
    <data>
      -1 1</data></class_labels>
  <sv_total>1</sv_total>
  <support_vectors>
    <_>
      -4.05112980e-003 -3.56979668e-004 -2.24994193e-003
      -4.54232981e-003 -2.98626674e-003 -1.42036146e-003 1.51186006e-003
      2.59474036e-003 -1.84402126e-003 -5.09728771e-003 1.79409899e-003
      -1.56524766e-003 -2.73498776e-003 3.23539018e-004 9.37353878e-004
      -1.12283998e-003 1.85854849e-003 -5.35800727e-003 -2.21064547e-004
      2.33601849e-003 -2.84052873e-003 -4.52649826e-003 -1.71532971e-003
      1.08507124e-003 2.67938897e-003 3.68427555e-003 -2.07619742e-003
      -2.70221219e-003 1.65910576e-003 -2.81017390e-004 -8.46343115e-004
      7.29891413e-004 6.90831512e-004 7.24880374e-004 9.79712000e-004
      -5.31339133e-003 -6.25083968e-003 -1.75263907e-003
      -3.47977621e-003 -3.36598349e-003 2.88573734e-004 3.10546299e-003
      -4.28574742e-004 2.48155557e-003 -4.44781361e-003 -5.74144069e-003
      -1.91581913e-003 -2.41917418e-003 -3.86274094e-003
      -1.53836713e-003 6.80245284e-004 -1.51382468e-004 2.34379992e-003
      -2.35679047e-003 -2.89631239e-003 2.69373786e-003 -1.60110893e-003
      -3.19183059e-003 -7.84215867e-004 2.31248373e-003 -4.15003014e-005
      -8.55266349e-004 -6.81615388e-003 -2.63299211e-004 1.74842065e-003
      1.44570228e-003 -5.59026841e-003 -2.69731483e-003 6.46642875e-004
      -2.52110331e-004 -8.30015924e-004 -5.39214863e-003
      -5.02947019e-003 -8.93743010e-004 -2.64842599e-003
      -4.04232880e-003 -3.94835835e-003 -2.00839201e-003 1.43474317e-003
      3.72768240e-003 -1.59823475e-003 -4.15766332e-003 -9.81339399e-005
      -3.79529851e-003 -4.59548272e-003 -3.33042233e-003
      -5.84435998e-004 2.10626982e-003 5.74454572e-003 2.33010171e-004
      -1.43920095e-003 3.67885944e-003 1.05973682e-004 -5.03053330e-003
      -5.00983000e-003 -2.00621132e-003 1.08929304e-003 1.86949992e-003
      -4.17611003e-003 1.52209820e-003 4.23947861e-003 -7.04273814e-004
      -3.06808669e-003 -3.08247772e-003 2.03330419e-003 1.10635383e-003
      2.47027795e-003 -1.77111058e-003 -3.30935884e-003 -7.25158141e-004
      -4.28978447e-003 -5.47808595e-003 -3.36730410e-003
      -1.07197626e-003 8.42637557e-004 5.03230188e-003 3.66843189e-004
      -2.08282867e-003 -1.50276755e-003 -2.86850845e-003
      -4.02386114e-003 -4.42561973e-003 -5.29788726e-004
      -6.97258394e-004 6.16472447e-003 2.25560577e-003 -1.15269911e-003
      2.19499413e-003 -1.80442969e-003 -3.28623038e-003 -2.32246798e-003
      -4.79423878e-004 6.15352590e-004 3.50326812e-003 5.72608900e-004
      -1.46544434e-003 1.37349544e-003 -3.76543017e-006 -1.88417453e-003
      -1.96636305e-003 5.56949060e-004 -4.21192701e-004 5.59752854e-003
      1.67564233e-003 -2.56245700e-003 -1.77204504e-003 -1.10028684e-003
      -2.01983703e-003 -3.02373036e-003 -8.58365383e-004
      -1.36757793e-003 5.77992899e-003 2.85512465e-003 -2.36515072e-003
      -7.40617455e-004 -5.41350746e-004 -1.39254588e-003
      -2.52363854e-003 1.25901672e-004 -7.99836416e-004 3.72061552e-003
      1.86875358e-003 -2.10963981e-003 -3.29501781e-005 8.85262678e-004
      1.10557885e-003 -1.42113975e-004 5.56559571e-005 -1.19447301e-003
      1.85965677e-003 -8.04903029e-005 -2.65569240e-003 -1.42204823e-004
      -1.04703358e-003 -3.89962632e-004 -2.78779329e-003
      -1.70002604e-004 -1.13645836e-003 1.22128509e-003 -1.65080279e-003
      -2.52053258e-003 -7.14943046e-004 -8.58193962e-004
      -1.83992810e-003 -2.67270254e-003 1.52988732e-003 -6.27601257e-005
      4.18595504e-003 2.78450781e-003 -2.33310880e-003 -1.80138741e-003
      -1.41520670e-003 -2.53333198e-003 -2.28095707e-003 1.68498699e-003
      -3.76124081e-004 3.85637325e-003 3.37176700e-003 -2.40864465e-003
      -2.79908068e-003 -1.96660100e-003 -1.63789676e-003
      -2.86688283e-003 1.93145184e-003 1.35176687e-003 2.63916538e-003
      1.97358686e-003 -2.71588820e-003 -3.05102952e-003 -2.47127307e-003
      -2.13082856e-003 -2.54361727e-003 2.35784007e-003 2.54231226e-003
      4.22642194e-003 4.68436303e-003 -1.42664078e-003 -1.94303179e-003
      -2.21561245e-003 -3.47901322e-003 -5.79119835e-004 1.26916694e-003
      1.25075734e-004 3.55250761e-003 2.83235521e-003 -1.01987005e-003
      -7.91258062e-004 -8.81173997e-004 -1.14275224e-003 1.44259818e-003
      -4.00419813e-005 -2.31667625e-004 3.24999960e-003 1.86352187e-003
      -2.81396345e-003 -8.85472167e-004 -1.51626137e-003
      -3.02734133e-003 -2.57264310e-003 1.00023963e-003 2.62669614e-003
      5.08865109e-003 2.43934919e-003 -2.65013450e-003 -1.19310129e-003
      -2.10448750e-003 -9.03776032e-004 -1.18450273e-003
      -2.72374658e-004 7.24175421e-004 2.53716880e-003 -3.09855212e-004
      -9.02426953e-004 5.49435616e-004 1.18131016e-003 1.67852384e-003
      6.29632093e-004 3.52388306e-004 9.59888974e-004 3.99072608e-003
      2.05326197e-003 -8.49607226e-004 -4.74924949e-004 -1.73995271e-003
      -2.24236050e-003 -1.19764800e-003 9.04406304e-004 1.12576061e-003
      4.86068102e-003 3.85694602e-003 -2.52173701e-003 -1.48904207e-003
      -1.35662127e-003 -6.36485987e-004 -9.61171289e-004
      -8.66786228e-004 6.97688956e-004 3.57561302e-003 -3.62994615e-004
      -1.78256538e-003 -1.94945384e-003 -1.64305209e-003
      -2.95018754e-003 -2.95943394e-003 -9.91239212e-004 1.87159539e-003
      2.05022958e-003 1.31602178e-003 -1.82929460e-003 -9.02070256e-004
      -2.60345568e-003 -3.59697710e-003 -2.33343826e-003
      -4.49980871e-004 -5.31580372e-005 5.68924705e-003 5.73611679e-003
      -1.16658036e-003 -6.85823092e-004 -2.64087250e-003
      -1.09768892e-003 -7.77812849e-004 -1.19401468e-003
      -7.64786906e-004 4.43167891e-003 3.72561160e-003 -9.08655289e-004
      -2.32901517e-003 -2.14771507e-003 -2.95240665e-003
      -2.67452607e-003 -1.00667843e-004 4.14464128e-004 2.94020772e-003
      3.63697973e-003 -9.80985933e-004 4.07538202e-004 -8.89855204e-004
      -6.80855650e-004 -1.10530085e-003 -1.70983607e-003
      -1.45626091e-003 3.28768697e-003 2.82191951e-003 -6.53804280e-004
      3.37764010e-004 -2.00653309e-003 -1.44315860e-003 -1.09528459e-003
      -1.11188029e-003 6.51037670e-004 2.05998286e-003 2.54345010e-003
      1.32070330e-003 2.15512095e-003 3.18585837e-004 -1.41655782e-003
      -2.44636135e-003 4.58683935e-004 2.08815979e-003 3.16067645e-003
      5.77696413e-003 -1.31093699e-003 1.92555680e-003 1.15305011e-003
      -9.35453398e-004 -2.52634007e-003 -1.25602563e-003
      -3.93074384e-004 2.59395642e-003 2.33410206e-003 4.29810665e-004
      2.31423159e-003 2.90324772e-003 1.36456639e-003 -3.79916118e-003
      1.01072202e-003 1.81282219e-003 3.69509915e-003 3.52793699e-003
      1.71926559e-003 1.89195434e-003 -4.23249818e-004 1.58244011e-003
      -2.66536779e-004 -8.18862696e-004 2.90207099e-004 1.01513369e-003
      2.40368047e-003 1.09303824e-003 -1.55403453e-003 -2.50251172e-003
      2.19619204e-003 2.34316825e-003 -2.08418351e-004 -4.52558219e-004
      7.21226388e-005 -2.99612875e-004 2.23824041e-004 1.78675831e-003
      2.02142145e-003 2.60297977e-003 -1.87680312e-003 1.11498323e-003
      1.04433144e-004 3.91085807e-004 -1.25852879e-004 3.89033085e-004
      -3.36299511e-003 -1.64703451e-004 2.51350529e-003 1.06545282e-003
      3.28659167e-004 -2.22984981e-003 -1.49468577e-003 -1.97914499e-003
      2.02426454e-003 -2.91651086e-004 -3.23843327e-003 5.81279816e-003
      4.48087556e-003 1.30720926e-003 2.06100842e-004 1.78229835e-004
      3.25164903e-004 1.22029195e-003 2.70762452e-004 -1.87931786e-004
      7.22850673e-004 7.39330484e-004 -1.32133171e-003 -1.17375306e-003
      1.32465153e-004 -1.15906740e-004 8.06147058e-004 -3.36187589e-003
      -9.75516334e-004 4.55637835e-003 3.64786340e-003 2.87631690e-003
      -5.84856723e-004 -1.95567496e-003 -1.51337334e-003
      -1.19094481e-003 -2.22254754e-003 4.01425699e-004 -3.85598221e-004
      1.28642761e-003 7.44288554e-004 -2.24092888e-004 -1.63694599e-003
      -8.69314754e-005 1.09194848e-003 -2.21874681e-004 1.85432960e-003
      -1.15831484e-004 -4.01897589e-003 -3.39323236e-003
      -3.26979905e-003 -1.51881413e-003 -1.04037975e-003 3.42889223e-003
      2.67548417e-003 1.27541646e-003 1.61142368e-003 -9.27370915e-004
      8.28257587e-004 2.66110757e-003 1.80069590e-003 8.45919421e-004
      -1.79797306e-003 -2.18391162e-003 8.42494133e-004 6.66507520e-004
      -1.38557598e-003 -2.77146813e-003 -2.79122381e-003
      -1.99458725e-003 -9.30194859e-004 1.81340496e-003 1.75031915e-003
      1.53333414e-003 8.74626683e-004 -1.22512842e-003 1.80922914e-003
      8.25498311e-004 1.76482345e-003 2.81228218e-003 1.75418239e-003
      3.94225994e-004 1.17542542e-004 -5.81987370e-005 -3.27497395e-003
      -9.47211811e-004 5.67298033e-004 1.60288089e-003 1.29040575e-003
      4.90136817e-003 1.18228176e-003 1.73918577e-003 3.86706699e-004
      -1.63001055e-003 -1.70486316e-003 1.27771799e-003 1.01086951e-003
      2.54634721e-003 1.83155423e-003 1.45372842e-003 -3.95322240e-005
      -3.35636490e-004 -4.43394575e-003 -1.54906802e-003
      -1.34466169e-003 -5.12466358e-004 1.96099770e-003 3.05037829e-003
      7.72325962e-004 -2.67292518e-004 5.14670624e-004 -3.39379330e-004
      -3.87918390e-003 -2.65063928e-003 -2.21463945e-003 1.79016660e-003
      8.13702762e-004 -5.37555607e-004 2.64848513e-003 3.58435384e-004
      2.45548523e-004 1.01606536e-003 3.59943835e-004 -5.44621376e-004
      -3.13340628e-004 -1.98931084e-003 -1.92671514e-003 1.60459662e-003
      -1.49698288e-003 -1.01374288e-003 -5.40447014e-004
      -1.32718019e-003 -1.68693112e-003 -1.15079794e-003 1.21735013e-003
      -1.73725095e-003 -4.28892032e-004 1.87580264e-003 -2.41361675e-004
      -1.52091309e-003 -3.01105925e-003 -2.69893161e-003
      -1.66794704e-003 -1.28195540e-003 -2.10907450e-003 4.51960572e-004
      -6.13541983e-004 -1.22284784e-003 -7.49669911e-004
      -8.92420532e-004 -3.35538847e-004 -9.13442869e-004
      -2.58194259e-003 1.80638465e-003 -3.29200318e-003 -6.81970315e-003
      -6.69722818e-003 -3.69698345e-003 -1.71503099e-003 1.30643439e-003
      -4.62368922e-003 -9.43411069e-005 4.88582486e-003 -2.97579798e-003
      -4.88056336e-003 -2.21871096e-003 -5.95512451e-004
      -1.40945788e-003 -1.59356464e-003 -7.18744192e-003 3.15898587e-003
      6.81263581e-003 -1.38487888e-003 -5.63765690e-003 -6.15863409e-003
      -2.37831660e-003 -2.14976826e-004 3.71660059e-003 1.07841205e-003
      3.43170878e-003 5.76035958e-003 1.26210609e-004 -5.88369602e-003
      -4.32505971e-003 -6.08762959e-004 1.16003654e-003 1.51018624e-003
      -1.97702111e-003 6.23957079e-004 4.46092710e-003 -1.50067394e-003
      -2.52107508e-003 -2.77228141e-003 -1.19853590e-004
      -3.44051654e-003 -3.68974521e-003 -5.69489691e-003 2.87212268e-003
      3.85067961e-003 -2.57757783e-004 -3.90839344e-003 -4.29716846e-003
      -2.14003795e-003 -4.55962680e-003 -4.70503327e-003
      -3.77558428e-003 2.87385727e-003 5.68527076e-003 8.46500567e-004
      -4.05027904e-003 -5.77783911e-003 -7.02450983e-004
      -1.52461836e-003 1.24833686e-003 -9.23968328e-004 1.68959983e-003
      5.26215509e-003 2.40186695e-003 -2.99825659e-003 -1.96653209e-003
      2.27702083e-004 -4.73647704e-003 -1.50510436e-003 4.33734094e-004
      3.80308786e-003 4.57606744e-003 4.07785556e-004 -3.89401591e-003
      -4.40801075e-003 -2.89839949e-003 -2.51058675e-003
      -2.21592165e-003 -2.34694988e-003 4.93301312e-003 4.46403539e-003
      -6.91988098e-004 -1.80091744e-003 -3.68456170e-003
      -5.73688245e-004 -2.19949894e-003 -1.51479465e-003
      -5.76250895e-004 2.85194768e-003 4.85562673e-003 7.53069471e-004
      -2.16232915e-003 -2.37608678e-003 -3.48193484e-004
      -3.02764145e-003 -1.91272900e-003 3.10840929e-004 1.09207002e-004
      1.84453872e-003 -2.27965554e-003 -3.64836282e-003 -3.53641808e-003
      -1.05182233e-003 -2.30752723e-003 -4.35467082e-005
      -1.70513277e-003 8.30176577e-004 6.24000444e-004 -2.72176781e-004
      -2.89073586e-003 -3.31028597e-003 -1.09897205e-003
      -1.39102468e-003 -1.48880194e-004 -8.23828916e-004
      -3.04110508e-005 1.05893647e-003 1.88227277e-003 4.41044394e-004
      -1.15597772e-003 -1.08299637e-003 -2.44315271e-003
      -8.44375347e-004 -1.61610777e-003 -1.09634583e-003
      -6.92570175e-004 -9.90254455e-004 -2.29835534e-003
      -3.83277889e-003 -1.21168594e-003 -2.14079604e-003
      -3.36396421e-004 -8.90053925e-004 1.04600028e-003 9.39514197e-004
      1.69417658e-003 2.06040335e-003 4.68497339e-004 -4.74782631e-004
      -1.83068297e-003 -7.20683194e-004 -2.91986071e-005
      -1.07120501e-003 7.17783638e-004 1.62109686e-003 2.13224278e-003
      1.48157834e-003 -1.99708063e-003 -1.88821706e-003 -2.96767801e-003
      -2.31416617e-003 -2.82941922e-003 3.24781402e-004 1.99366608e-004
      -1.15821160e-004 -1.64516864e-003 -1.13530550e-003
      -3.46520857e-004 -3.13018821e-003 -2.59759650e-003 2.04745121e-003
      7.39334442e-004 1.10247335e-003 -1.48060441e-004 2.87111639e-003
      -1.33485778e-003 -1.72490417e-003 -2.09292793e-003 2.01042253e-003
      2.02293438e-003 -1.10173982e-003 -8.95771431e-004 -1.73548423e-003
      -1.45087353e-004 -1.98435411e-003 -1.23740814e-003
      -2.03633239e-003 1.84457842e-003 -1.54876988e-003 -2.65783002e-003
      -1.88662717e-003 -1.88270560e-003 -2.17169151e-003
      -7.35650712e-004 -1.57472084e-003 -1.49931270e-003
      -3.00896383e-004 -1.08427159e-003 -3.49070295e-003
      -1.31084165e-003 1.44839680e-004 -1.40259310e-003 -3.16145190e-004
      9.16975318e-004 1.04687829e-003 2.42214976e-003 1.67973863e-003
      -2.05390155e-003 -5.84238966e-004 -6.00231986e-004
      -1.04846479e-003 -7.73896812e-004 -4.95462678e-004
      -1.96882407e-003 1.51639187e-003 1.49997126e-003 -3.68219870e-003
      -1.85216684e-003 4.79823415e-004 -6.33734744e-004 -3.84729297e-004
      3.85276653e-004 -1.79693999e-003 2.74195848e-003 -2.06663157e-003
      -1.64477725e-003 -2.20485358e-003 -7.96950771e-004
      -1.29371195e-003 5.48422569e-004 2.90136877e-003 2.69841310e-003
      1.74543049e-004 -4.15259507e-003 -1.46711816e-003 -1.68940297e-003
      -1.44611706e-003 -1.06087746e-003 1.44385698e-003 2.09877477e-003
      2.53957184e-003 -2.72776908e-003 3.33586591e-004 -2.03320989e-003
      -3.56039568e-003 5.06454729e-004 1.14742178e-003 3.11190059e-004
      1.38186757e-003 5.80456282e-004 1.17942912e-003 -2.91276810e-004
      -1.24074263e-003 -2.00288882e-003 -1.47532776e-003 1.21746969e-003
      1.53081806e-003 1.43021101e-003 1.02777116e-003 9.17925499e-004
      -2.43106019e-003 -2.49074004e-003 -1.09183579e-003
      -1.37721782e-003 -5.30671387e-004 2.82639492e-004 3.51751194e-004
      1.53515325e-003 -1.41824177e-003 -1.86360755e-003 -3.52538121e-003
      -1.70923979e-003 -3.41887400e-003 -2.82749697e-003
      -3.61308979e-004 2.23131827e-003 9.76432813e-004 5.21103677e-004
      -1.15144881e-003 -1.20174582e-003 -9.94480914e-004 3.80270103e-005
      1.79870264e-003 2.37262016e-003 2.58705672e-003 1.77883066e-003
      1.62074482e-003 -5.55479819e-005 -1.30537758e-003 -1.63902726e-003
      1.01672842e-004 1.82563509e-003 2.87700619e-004 2.60135718e-003
      5.26839540e-005 2.19933409e-003 -9.19003563e-004 -3.29889497e-003
      -2.07104697e-003 -2.98651727e-003 -2.14463868e-003
      -4.01814410e-004 8.37660627e-004 1.42969342e-003 4.74858010e-004
      -8.63361871e-004 9.23648593e-004 3.40884435e-005 -1.55737405e-004
      -1.63624086e-003 -2.74809590e-003 -2.64999620e-003 2.11196486e-003
      1.10392133e-003 3.58009036e-003 -8.95195990e-004 -2.52052327e-004
      -1.92850688e-003 -1.18123018e-003 -1.55181473e-003 5.37518994e-004
      9.06520654e-005 1.85724709e-003 4.23489511e-003 1.00978138e-003
      1.61438773e-003 -3.58543293e-005 -1.84982480e-003 -2.70466227e-003
      -7.08512496e-004 5.00721653e-005 2.08196137e-003 8.73507888e-005
      2.89745443e-003 6.75868941e-004 -3.27283924e-004 -3.66543140e-003
      -6.82108104e-004 -1.40762620e-003 2.33069179e-003 9.66526277e-004
      4.18845520e-005 2.13452033e-003 2.79352814e-003 8.02820665e-004
      -3.48657765e-003 1.41870114e-003 9.29106493e-004 2.44446751e-003
      6.65425905e-004 2.84138741e-003 2.00616033e-003 1.79407047e-003
      4.33641573e-004 -3.38950288e-003 -4.67381906e-004 4.31865774e-004
      1.25492737e-003 9.34195879e-004 -2.31526195e-004 3.10031907e-003
      3.99486721e-003 5.15310501e-004 -2.44321697e-003 2.26667570e-003
      2.64448742e-003 -1.91485742e-004 1.01593125e-003 -1.16107857e-003
      -2.36054839e-004 2.47707986e-003 2.36773468e-003 -1.52851455e-003
      2.03988329e-003 1.56563893e-003 4.44915524e-004 -7.25899823e-004
      9.33883857e-005 -2.16669287e-003 5.32629783e-004 2.87637836e-003
      7.02867866e-004 -4.54518122e-005 -1.39873824e-003 -9.71881149e-004
      -1.88559957e-003 -1.44741766e-003 1.07363821e-003 3.17257619e-003
      2.20852089e-003 -9.22669889e-004 3.09346849e-003 2.28364044e-003
      -3.31788731e-004 -2.81334296e-003 -1.39228103e-003
      -7.28253159e-004 9.21661500e-004 3.58977704e-003 -4.78426846e-005
      2.57217581e-003 1.80052011e-003 1.19145820e-003 -1.80487405e-003
      1.61286525e-003 -8.00560578e-004 -1.63403209e-004 2.39221938e-003
      3.08303954e-003 8.16143933e-004 -1.55843236e-003 -7.13679357e-004
      -1.27977505e-003 -4.09428845e-004 2.06099925e-004 2.09132675e-003
      -8.04922776e-004 6.51104259e-004 7.49138126e-004 4.11149522e-004
      -7.92714127e-004 -4.19358752e-004 5.45500370e-004 1.63284742e-004
      -9.23220126e-004 1.91467546e-003 1.27172086e-003 2.19239411e-003
      1.85666094e-003 3.10621271e-003 1.53782626e-003 6.70737121e-004
      8.85374553e-004 2.36140704e-003 -1.48081128e-003 -5.08568250e-004
      9.10932838e-004 2.37168744e-003 1.86762027e-003 1.96268107e-003
      -3.06676113e-004 5.06470329e-004 2.02910532e-003 -3.09741183e-004
      1.53846107e-004 -1.28352211e-003 -2.20624614e-003 -2.13122950e-003
      -5.71411685e-004 1.50433031e-003 2.72152177e-003 3.64163518e-003
      2.78607826e-003 -1.64107856e-004 -1.14331406e-003 -1.37458218e-003
      -3.64357897e-004 2.00524647e-003 1.62908004e-003 7.44040997e-004
      2.07245164e-003 1.34507346e-003 -4.46645543e-004 -5.19166584e-004
      -1.38361112e-003 -8.31797661e-004 5.98099199e-004 2.20351969e-003
      1.99827901e-003 4.08460805e-003 4.33973735e-003 1.86618604e-003
      -1.53388199e-003 -2.45856564e-003 -2.23596231e-003 1.95787725e-004
      8.97643156e-004 1.34951819e-003 3.78833921e-003 1.11856905e-003
      -2.81746243e-003 -3.37131438e-003 -3.43977683e-003
      -3.05473362e-003 1.33166183e-003 1.29445293e-003 5.40538284e-004
      1.85403519e-003 3.56681901e-003 1.84939790e-003 -1.91081502e-003
      -3.62547813e-003 -3.26672220e-003 -1.92856605e-004
      -7.78069661e-004 -1.70003404e-005 2.98098056e-003 4.63565113e-003
      2.56614352e-004 -4.04840009e-003 -4.88245673e-003 -4.66229254e-003
      -1.12012459e-003 -2.19731824e-003 -9.75614355e-004 3.63653805e-003
      4.27865237e-003 2.38240347e-003 6.54472969e-004 -3.43752978e-003
      -4.07826668e-003 -1.99676142e-003 -5.84455149e-004
      -1.40521489e-003 3.53296869e-004 3.37887090e-003 9.90260975e-004
      -1.01435708e-003 -2.66926689e-003 -2.89254426e-003
      -2.05120118e-003 -8.35212646e-004 -1.95412477e-003 5.74589183e-004
      -8.54682003e-004 -6.16294972e-004 4.99973248e-004 1.08067616e-004
      4.37696319e-004 -1.16590709e-004 -2.69128545e-003 -2.19644257e-003
      1.07085647e-003 3.90373287e-003 1.11226575e-003 7.43252924e-004
      -1.88621867e-003 -2.46883044e-003 -2.62740604e-003
      -1.81139843e-003 -1.97740667e-003 4.40420903e-004 2.20252853e-003
      -1.54234853e-003 3.00040265e-004 -8.94586265e-004 -1.37992972e-003
      -2.44302931e-003 2.35862075e-003 5.28424466e-003 1.05864904e-003
      -4.69948398e-003 -7.04703247e-003 -2.67219474e-003
      -4.59671923e-004 8.02382641e-003 6.08062837e-003 5.21457463e-004
      3.10300849e-003 4.80063987e-004 -3.94708849e-003 -5.51760988e-003
      -3.11768404e-003 -2.07287585e-003 4.19543963e-003 -2.61990092e-004
      -2.71910196e-003 1.36871659e-003 1.43572790e-004 -4.63363063e-003
      -7.79791549e-003 -1.50134729e-003 5.32799284e-004 7.05896784e-003
      2.27057631e-003 -5.31544862e-003 -1.13574020e-003 -1.42489467e-003
      -2.70341593e-003 -6.15841150e-003 -2.01968569e-003
      -2.37371819e-003 5.08031342e-003 -2.31718947e-003 1.06033382e-004
      3.33662587e-003 2.11631134e-003 -1.93963386e-003 -4.29445738e-003
      -1.74769282e-003 -1.12280587e-003 4.45602695e-003 9.71876958e-004
      1.26002613e-003 3.77979502e-003 2.23928550e-003 -2.78847525e-003
      -3.25196935e-003 -1.59028871e-003 -9.22834792e-004 3.82319768e-003
      2.48011528e-003 -6.43703481e-003 -5.31521917e-004 -8.29768018e-004
      5.32267914e-005 -3.17421625e-003 -1.68908248e-003 -2.04893225e-003
      3.00835096e-003 -1.75245898e-003 -3.64785688e-003 -9.20234073e-004
      -1.07710704e-003 -2.14945083e-003 -4.02069138e-003
      -1.15308433e-003 -6.07733091e-004 3.27341864e-003 -2.00661685e-004
      1.58272160e-003 1.18361553e-003 6.63930434e-004 -3.60774854e-003
      -3.02689150e-003 -4.76565852e-004 -6.59560144e-004 3.54870036e-003
      4.11811331e-003 -1.03799673e-003 -1.37636892e-003 -1.18604989e-003
      -2.07701046e-003 -2.78078183e-003 -5.03235788e-004
      -1.21824373e-003 2.96445377e-003 2.61964655e-004 -2.12646299e-003
      -1.43965299e-003 -6.56009652e-004 -2.92636501e-003
      -4.49138973e-003 -7.26775383e-004 -3.04738525e-004 5.88346645e-003
      1.54311699e-003 -1.01383496e-003 -1.28254923e-003 -2.85650662e-004
      1.41309795e-003 -6.35335804e-004 1.31828210e-003 -1.02474424e-003
      5.27870934e-003 1.55947520e-003 -4.20766696e-003 -2.08110039e-004
      -6.21583531e-005 -4.60453331e-004 -1.41769578e-003 4.73403372e-004
      -9.41071194e-004 2.85999617e-004 -2.08739447e-003 -1.87509309e-003
      -4.44083737e-004 6.73586444e-004 9.02660133e-004 1.68748654e-003
      1.32148119e-003 6.90696528e-004 1.19404285e-003 -8.44078662e-004
      -3.11627844e-003 -9.90452943e-004 -3.00784974e-004 2.40163505e-003
      1.08214899e-003 1.93127280e-003 -9.34154319e-004 2.52355501e-004
      -1.17440859e-003 -2.16359645e-003 -2.19136523e-003
      -1.37987881e-004 1.77951204e-003 2.02945364e-003 1.94125157e-003
      7.58584880e-004 5.05123404e-004 -3.36746150e-003 1.50161795e-003
      -7.56144756e-004 1.69568477e-004 -6.69779140e-004 9.39691672e-004
      7.60550145e-004 1.94967224e-003 4.43010678e-004 2.14529270e-003
      2.62574852e-003 -1.21255952e-003 -2.06315817e-004 -1.34901050e-003
      -7.85577518e-004 2.46074691e-004 2.12270906e-003 5.10760365e-005
      2.00881390e-003 -1.86534447e-003 -3.29537760e-003 -5.94826473e-004
      -3.01183987e-004 -1.15010235e-003 5.89600066e-004 1.27958949e-003
      5.29340934e-004 -1.25494611e-003 1.04269234e-003 -1.08925288e-003
      -1.14144676e-003 -2.32847733e-003 -1.35034125e-003 7.03528698e-004
      5.74101927e-004 -6.08666567e-004 2.94820988e-003 -8.69898766e-004
      -2.14055087e-003 -1.24526909e-003 -1.70033856e-003
      -9.38915997e-004 -1.55768881e-004 2.44612503e-003 -3.40225379e-004
      1.44036824e-003 -1.06832758e-003 -3.76635860e-003 -3.49152880e-003
      -4.88595455e-004 1.37395211e-004 1.38094672e-003 2.27535469e-003
      -1.68597267e-003 8.60385015e-004 -1.81447645e-003 -1.76232110e-003
      -1.24145555e-003 -2.27608578e-003 -3.67002940e-004 1.83115844e-004
      3.26847425e-004 7.79282651e-004 2.97185383e-003 -1.30786712e-003
      -2.90856697e-003 -1.76463928e-003 4.10587876e-004 2.00993149e-004
      2.56423402e-004 1.87903887e-003 -1.16475613e-003 9.65028652e-004
      -1.31243898e-003 -3.39182885e-003 -3.74973845e-003
      -8.00741487e-004 4.15249262e-004 1.46397506e-003 2.40179151e-003
      -1.13424729e-003 -8.57504609e-004 -7.90313643e-004
      -9.38413374e-004 -1.29136292e-003 -4.59301693e-004 7.04983191e-004
      1.74883136e-003 1.38841709e-003 1.10113306e-003 7.29922787e-004
      -9.06970992e-004 -3.10077216e-003 -3.48273758e-003 1.38759823e-003
      1.38829334e-003 8.47949414e-004 2.42919987e-003 -1.26348145e-003
      1.72600150e-004 -1.60139624e-003 -3.63496877e-003 -2.52598897e-003
      2.03880318e-003 1.47259576e-004 1.84121693e-003 1.70134951e-003
      1.15244614e-003 2.09925091e-003 -2.09029834e-003 4.01884143e-004
      -8.57798965e-004 1.48243678e-003 2.67653167e-003 1.54493039e-003
      3.47449619e-004 9.08708840e-004 8.33215367e-004 -1.76964531e-004
      -2.89216731e-003 -2.98158266e-003 1.26006815e-003 9.51577444e-004
      -5.70145494e-004 -1.20828750e-004 -1.59802532e-003 3.25960209e-005
      -2.14050780e-003 -8.94941448e-004 -7.24164827e-004 3.48635670e-003
      2.43879994e-003 2.08374416e-003 1.04117405e-003 2.67547369e-003
      2.52940482e-003 -1.68624357e-003 -1.32206595e-003 -1.22461584e-003
      -3.42988118e-004 -3.91478476e-004 -4.06349245e-005 1.02256029e-003
      -6.24787004e-004 3.40230472e-004 2.92890449e-003 -2.10193801e-003
      -2.50168191e-003 2.35825655e-006 1.14624330e-003 -1.53362227e-003
      2.93707941e-004 -7.36226270e-004 1.74550817e-003 2.86860974e-003
      -8.43367190e-004 -7.13168585e-004 -1.03772630e-003
      -2.03358056e-003 -8.13860795e-004 4.75064822e-004 4.09790693e-004
      2.70328042e-003 5.33488812e-004 -2.44847895e-003 -2.46257172e-003
      7.14346941e-004 1.04149527e-004 -6.89086679e-004 4.19094809e-004
      -4.18247626e-004 2.04111286e-003 4.14132170e-004 -1.54708090e-004
      -1.11202442e-003 -5.09633392e-004 -2.42856843e-003
      -9.54238407e-004 7.52170978e-004 2.16050469e-003 4.69759339e-003
      -2.25664582e-004 1.01573812e-003 1.80171197e-003 5.33103419e-004
      -3.31584993e-003 4.35694295e-004 1.69511093e-003 8.00359296e-004
      8.17634515e-004 -2.30373489e-003 1.43372419e-003 3.39599629e-003
      2.26192875e-003 -9.03028122e-004 2.47470662e-003 3.13171674e-003
      5.37940010e-004 -1.54153130e-003 -4.70266605e-005 1.19202479e-003
      1.06379320e-003 2.64258124e-003 2.89246032e-004 5.50219731e-004
      1.84192276e-003 1.57975825e-003 8.39324377e-004 -1.13517989e-003
      1.65056391e-003 7.78193702e-004 3.11556039e-003 -6.05198220e-005
      1.40296819e-003 1.92906323e-003 1.10479165e-003 -3.70449177e-003
      -1.00211927e-003 6.41284219e-004 3.19790072e-003 3.50035657e-003
      1.00389705e-003 1.93322008e-003 6.87458494e-004 -3.74548166e-004
      -3.70011735e-003 -1.47157756e-003 -3.04652523e-004 1.70552416e-003
      1.43605785e-003 -1.36985516e-004 2.95075425e-003 4.68380284e-004
      -2.48750021e-005 -3.34014138e-003 -3.23269371e-004 7.36968941e-004
      5.07273398e-005 3.40001727e-003 1.87172648e-003 1.48817420e-003
      1.07136171e-003 1.37971842e-003 -2.27534352e-003 6.50238362e-004
      3.26649926e-004 4.31693858e-004 6.34687676e-005 1.76884898e-003
      3.37025151e-003 1.88476930e-003 1.11663132e-003 -1.62807375e-003
      -1.04333065e-003 -1.45303668e-003 -9.22194158e-005 5.29922778e-004
      -1.07494695e-003 3.84133006e-003 2.55166087e-003 2.98182224e-003
      5.85658476e-004 -2.27349903e-003 -3.97635216e-004 1.09515902e-004
      -8.39701563e-004 -2.88987020e-003 1.22143573e-003 1.92958617e-003
      3.01403576e-003 1.64515956e-003 -1.06127525e-003 -3.02115746e-004
      1.31644134e-003 -6.57650933e-004 5.77550323e-004 3.98787530e-003
      4.06269822e-003 2.58412631e-003 3.81155114e-004 -1.88879203e-003
      2.13884763e-004 -3.97646480e-004 -4.56091628e-004 -1.21755665e-003
      7.26724858e-004 3.53227952e-003 3.09361867e-003 6.36116078e-004
      3.82874598e-004 -1.09156407e-003 5.42825379e-004 6.04793197e-004
      -3.13669071e-003 4.99836984e-004 5.09641948e-004 6.25591143e-004
      4.50754131e-004 2.48987181e-003 9.66235471e-004 3.58404056e-003
      5.59444958e-003 -4.26059676e-004 -2.96551007e-004 -1.02989015e-003
      -1.52494677e-003 -4.43250319e-004 -7.29843916e-004
      -4.22349949e-005 -5.73884288e-004 2.50492667e-005 -2.70608906e-003
      2.26971679e-005 2.25420739e-003 1.30078173e-003 -3.44620610e-004
      5.57126594e-004 1.32599287e-003 2.01732921e-003 3.14363535e-003
      -1.53188535e-003 1.12084509e-003 9.21673956e-004 1.06231368e-003
      -5.69829936e-005 -9.32974363e-005 -8.40436609e-004 2.53556203e-003
      4.28686431e-003 -5.30987687e-004 -2.18176004e-003 -3.50795640e-003
      -2.83514801e-003 -2.02056929e-003 -8.06056370e-004
      -2.25319145e-005 3.71635682e-003 2.48264009e-003 9.31642600e-004
      9.92743880e-004 -1.85210665e-003 -1.34340685e-003 -6.95559778e-004
      -1.41373160e-003 -9.85242426e-004 8.29447410e-004 2.72135134e-003
      -1.96714234e-003 7.96269625e-004 -5.93965990e-004 -2.78728639e-005
      -1.79658073e-003 -1.78354303e-003 2.95211357e-004 2.40394892e-003
      1.34393014e-003 -2.74184463e-003 1.14899792e-003 2.28727935e-003
      1.00283104e-003 -1.83866743e-003 -1.01487816e-003 -4.24697384e-004
      2.04430078e-003 2.49055284e-003 -1.73807587e-003 5.71001183e-005
      -5.80813619e-004 7.29325257e-005 -1.57802366e-003 -3.02086235e-004
      3.00744257e-004 1.75874645e-003 2.02798075e-003 -2.98352866e-003
      2.35812913e-004 4.45454061e-004 4.33380454e-004 -1.26394420e-003
      -1.79678143e-003 -1.93214160e-003 9.43489140e-004 1.23912480e-003
      -4.61955694e-003 -4.74996690e-004 2.34419480e-003 1.67944236e-005
      -1.62505126e-003 -1.65773527e-004 -6.86348707e-004 1.31913624e-003
      -3.35426419e-004 -2.49824137e-003 -3.39949969e-004 2.22224859e-003
      3.15958372e-004 -4.59429983e-004 3.48812738e-003 1.62043364e-003
      -1.14268146e-003 -4.55899909e-003 -5.86853875e-003
      -2.43064860e-004 1.49868464e-003 8.39256868e-003 5.90772601e-003
      2.70479708e-004 -2.45257659e-004 -9.68974142e-004 -3.35858017e-003
      -5.56710269e-003 6.88431683e-005 2.52351165e-004 8.27838760e-003
      3.16100894e-003 2.42140784e-004 4.16414347e-004 -1.42053457e-003
      -6.84479950e-003 -7.16211274e-003 -3.03409598e-003 3.67387140e-004
      3.76293994e-003 1.64763164e-003 4.80272312e-004 -7.94166699e-004
      -1.07961136e-003 -5.52289188e-003 -5.84778283e-003
      -2.50410312e-003 2.75467959e-004 3.06945900e-003 1.50394347e-003
      -3.54468008e-003 3.06462345e-004 -1.18892698e-003 3.09642579e-004
      -1.18278083e-003 -3.70225098e-005 1.60974203e-004 6.82330318e-003
      3.35219433e-003 7.72829881e-005 -1.06720440e-003 -2.00361060e-003
      2.19087393e-004 -1.25354645e-003 7.68605561e-004 6.94762683e-004
      5.36504993e-003 3.16449651e-003 -1.53147953e-003 4.83015348e-004
      -5.55686129e-004 -3.35370493e-003 -2.33544293e-003
      -1.21480867e-003 8.41978588e-004 2.47921515e-003 -6.57431898e-004
      -2.56952457e-003 -9.44116095e-004 -1.82209816e-003
      -1.48221443e-003 -3.56968463e-004 -1.97435776e-003
      -1.05487241e-003 1.30691670e-003 -2.61277630e-004 -4.63169860e-003
      -1.31837442e-003 4.53798712e-004 -5.65745693e-004 -2.65877089e-003
      1.12638110e-003 1.78491828e-004 2.48884410e-003 7.09168031e-004
      -1.03610882e-003 -4.16893221e-004 2.17202143e-003 2.37769703e-003
      2.80546793e-003 4.28342959e-003 2.74454156e-004 3.77346063e-003
      1.63183094e-003 -1.95783889e-003 -7.04179634e-004 -1.51645124e-003
      -2.51768087e-003 -2.94211484e-003 -2.76648178e-004
      -2.60983687e-003 -6.50045637e-004 -1.69849151e-003
      -1.03414629e-003 6.87461114e-004 1.43218588e-003 1.07632799e-003
      2.84058345e-003 3.84533149e-003 -1.15847227e-003 1.51950502e-004
      -2.62125162e-003 -4.02136892e-003 -2.07857741e-003 7.75671157e-004
      1.99167617e-003 3.21575371e-003 5.49349189e-003 -1.21265603e-003
      -1.14770047e-003 -2.61641736e-003 -4.37973579e-003
      -2.18277704e-003 1.55337749e-003 2.33162753e-003 2.96229054e-003
      4.18886589e-003 7.31482287e-004 2.64545728e-004 -4.29464411e-003
      -3.96450190e-003 -2.91498774e-003 -7.33835506e-004 1.30226501e-004
      3.34001146e-003 5.36506576e-003 -2.94369948e-003 -1.86682597e-003
      -4.97160526e-003 -3.42338905e-003 6.31247996e-004 1.32140599e-003
      2.90811760e-003 3.66083323e-003 4.99045104e-003 -6.06439658e-004
      9.21659986e-004 -3.46889626e-003 -2.76964693e-003 -1.09474291e-003
      1.37414446e-003 3.91535112e-004 -9.14394855e-004 3.57490120e-004
      -3.65959640e-005 -1.93584026e-004 -2.95546511e-003
      -6.44666841e-004 -6.71547430e-004 6.96270436e-004 -1.05434726e-003
      -2.49634287e-003 9.99480486e-004 -3.62165709e-004 4.86871832e-005
      1.07292423e-003 5.68240830e-005 3.13461130e-003 3.64937098e-003
      2.21628393e-003 9.06585425e-004 2.71966611e-003 6.78190147e-004
      6.69765810e-004 2.64569046e-003 1.86956348e-003 3.37003497e-003
      1.70283637e-003 -9.60628968e-004 -1.60395040e-003 -5.05578821e-004
      -5.58167289e-004 -4.04491177e-004 3.59621528e-003 -1.82973174e-003
      -1.27472996e-003 1.97230271e-004 -2.36240347e-004 -1.06929301e-003
      1.13922521e-003 5.37907123e-004 4.62768628e-004 7.80892908e-004
      -1.72360439e-003 -1.03076850e-003 -9.45003194e-005 7.30633386e-004
      8.86965776e-004 5.04276890e-004 9.46471875e-004 -1.19998201e-003
      -7.64985161e-004 1.94544322e-003 2.27601093e-004 6.66608568e-004
      -1.42951519e-003 -2.45945202e-003 -3.93140617e-005
      -5.03028918e-004 -3.48014757e-004 2.94818752e-003 1.35280623e-003
      1.88033283e-003 5.51949313e-004 5.05174285e-005 -1.08741410e-003
      -7.07678671e-004 -9.72017762e-004 -1.16249349e-003 2.10773596e-003
      -2.13722372e-003 -7.69160863e-004 -4.21466451e-004 2.82987021e-003
      2.88914330e-003 1.26768864e-004 1.65556790e-003 -1.20278401e-003
      -2.93416204e-003 -3.72711523e-003 -2.83892290e-003
      -6.68124470e-004 2.04926985e-003 5.20647736e-004 1.94208277e-003
      1.66965451e-003 8.60619824e-004 -4.65749967e-004 -1.72909803e-003
      3.28831811e-004 7.62204989e-004 1.47898321e-003 1.58566213e-003
      7.63417047e-004 1.51235217e-004 -1.46922527e-003 6.42820378e-004
      -9.22906154e-004 -1.35639834e-003 1.00643921e-003 3.39378649e-003
      1.58169877e-003 1.48103607e-003 1.37239252e-003 3.29495437e-004
      -1.34544063e-003 -3.37347086e-003 -2.12018541e-003 6.65375963e-004
      3.35496990e-003 1.86969142e-003 2.22337153e-003 2.60285498e-003
      2.25106417e-003 1.51112082e-003 -3.70645826e-003 -6.90552843e-005
      1.81394885e-003 7.31287117e-004 -6.97534881e-004 5.94781421e-004
      1.78373710e-003 -2.41604284e-004 -1.24513602e-003 -9.75398638e-004
      -1.89254445e-003 -4.78826259e-004 1.59963104e-003 2.87657115e-003
      1.54979201e-003 2.44462513e-004 -7.73013220e-004 -2.32057209e-004
      -2.13516830e-003 -1.65824313e-003 -1.50973524e-003 1.92279031e-003
      2.02220035e-005 1.12622103e-003 9.43416147e-004 -1.26746378e-003
      4.25213977e-004 -1.65381131e-003 -2.07985446e-004 6.45732216e-004
      7.92408711e-004 -1.46334048e-003 1.47320749e-003 1.07038964e-003
      -1.62662720e-004 -3.98287848e-005 -1.80716242e-003 3.85409046e-004
      9.60833277e-004 2.09216936e-003 -1.17654982e-003 8.15042760e-004
      2.05271807e-003 1.72615063e-003 -1.26858547e-004 -2.36072461e-003
      7.12308916e-004 -1.72564795e-003 8.25671421e-004 4.84829157e-004
      2.07874039e-003 2.84529710e-003 1.24273088e-003 -1.78139569e-004
      -1.15275534e-003 1.40507403e-003 2.08131340e-003 5.55595849e-003
      3.50698107e-003 1.90095510e-003 1.18631928e-003 -2.87781906e-004
      -2.34455592e-003 -1.99540751e-003 4.79536189e-004 4.77188732e-004
      5.16519183e-003 8.19456007e-004 -7.16763025e-004 -5.98488659e-005
      2.67073017e-004 -2.45089480e-003 -2.67124991e-003 -9.39865888e-004
      1.96501787e-004 4.43164771e-003 1.37241615e-003 -1.61711014e-005
      4.17429430e-004 1.40535331e-003 -3.27875814e-003 -3.88728851e-003
      4.90157527e-006 -1.16916635e-004 5.84438164e-003 3.14582838e-003
      2.09022648e-004 -9.36945435e-004 -8.12885177e-004 -4.66959411e-003
      -3.45559628e-003 -1.93123228e-003 5.65871851e-005 4.97966213e-003
      1.73317478e-003 -3.05577087e-005 -3.00068001e-004 -5.92716679e-004
      -4.49454971e-003 -3.03964061e-003 -7.66364799e-004
      -2.84941896e-004 2.86462903e-003 2.61180848e-003 1.54000695e-003
      2.00775196e-003 1.89247855e-003 -2.25373683e-003 -1.76620472e-003
      -9.77847143e-004 -3.87815089e-004 -3.08630493e-004 2.79193511e-003
      4.62923991e-003 3.43812071e-003 1.98198948e-003 -1.37833226e-003
      -3.49337165e-003 -2.09071673e-003 -2.27389814e-004 2.26858607e-003
      5.29901299e-004 1.24896795e-003 1.02686964e-003 3.99764132e-004
      -2.86876666e-003 -1.37575704e-003 -1.05518720e-003 4.33648645e-004
      -1.21706878e-004 1.70240691e-003 1.31791923e-003 1.74994138e-003
      3.03202803e-004 -9.48814210e-004 -1.33954699e-003 -1.28297845e-003
      -5.08739322e-004 -1.68924837e-003 8.80340987e-004 3.82485474e-003
      4.45649726e-003 2.15739477e-003 5.83941524e-004 -4.09712375e-004
      5.70428034e-004 -8.03431903e-004 8.90027513e-006 -8.39294924e-004
      1.63753761e-003 2.93396716e-003 1.72331429e-003 -2.00062452e-004
      -6.23287284e-004 3.71256087e-004 1.62337441e-003 -1.25589385e-003
      7.33071996e-004 1.33279071e-003 3.06394137e-003 1.85259117e-003
      1.02066877e-003 -6.46233457e-005 1.79722032e-003 1.87586702e-003
      -3.76775453e-004 -4.02167352e-004 1.39465753e-003 3.03664315e-003
      1.51164504e-003 5.20603091e-004 -2.12937754e-004 -1.07290759e-003
      -4.70243802e-004 3.86729109e-004 -1.77123083e-003 4.74751869e-004
      1.46117876e-003 -2.66154180e-004 -9.75099392e-004 3.12218253e-005
      1.49939542e-005 1.50709902e-003 2.44003441e-003 -1.83025596e-003
      -6.59187790e-004 2.39074958e-004 -2.86846844e-005 -2.66595071e-005
      -5.01789145e-005 6.76915864e-004 1.26196444e-003 1.65346975e-003
      -7.57734408e-004 1.38808717e-003 2.30503664e-003 3.43951215e-005
      -2.24392817e-004 8.03400646e-004 -6.73241622e-004 1.85722136e-003
      3.16533470e-003 -3.84564075e-004 -1.28545705e-003 7.21530698e-004
      -4.80872201e-004 2.07377854e-003 -1.08670257e-003 -1.09331741e-003
      3.26213893e-004 1.14538998e-003 -2.57749669e-003 -6.98892632e-004
      -2.23770025e-004 -3.91791946e-005 -9.50426445e-004
      -7.68249447e-004 -9.71820089e-004 2.94418889e-004 1.70439912e-003
      -2.95665395e-003 1.43314817e-003 3.05055291e-003 7.48397666e-004
      -1.05439289e-003 -5.01699222e-004 -1.00156420e-003 7.13192625e-004
      1.23694376e-003 -2.59215827e-003 -2.51573301e-003 4.44080215e-004
      3.05514230e-004 1.24528306e-003 1.75383338e-003 1.73394254e-003
      1.53744535e-003 5.10929967e-004 -3.83822783e-003 -5.14355663e-004
      1.61900872e-003 -3.57390993e-004 9.08771472e-004 -1.33557792e-003
      -2.47311825e-003 -8.01542774e-004 9.28485068e-004 -4.99096466e-003
      6.79543473e-006 1.68460398e-003 -1.07863604e-003 -1.29614887e-003
      -2.93336983e-004 -1.30061584e-003 1.08503853e-003 2.72985519e-004
      -1.56788458e-003 7.50407111e-004 1.23024639e-003 3.90068220e-004
      -1.63684177e-004 2.27369179e-004 1.30358167e-004 6.21544605e-004
      7.22564175e-004 -2.78349617e-003 5.41641901e-004 1.77258288e-003
      -8.24504648e-004 -1.06131592e-004 1.62288931e-003 8.81372369e-004
      2.71383347e-003 8.14370695e-004 -5.48282231e-004 5.20666770e-004
      1.26305255e-004 5.54228143e-004 1.15715270e-003 2.58530350e-003
      1.98171660e-003 -3.13576631e-004 -4.20704857e-003 -4.95793950e-003
      -2.31644511e-003 4.86358861e-003 4.12620371e-003 3.64879076e-003
      2.56270589e-003 1.40919769e-003 1.14272954e-003 -4.50586155e-003
      -5.37895970e-003 -2.31206929e-003 2.13294337e-003 2.92728934e-003
      2.59002717e-003 2.68095569e-003 3.66780232e-003 1.54905033e-003
      -2.24671117e-003 -3.25453910e-003 -2.55343807e-003 4.17222269e-003
      2.41623982e-003 8.45127332e-004 4.25957330e-003 3.80845414e-003
      3.24027194e-003 -2.89191143e-004 -3.09712440e-003 -2.84271757e-003
      1.59307185e-003 7.73370732e-004 1.88778259e-003 1.97321177e-003
      2.86923465e-003 2.28496478e-003 -1.65123667e-004 -1.00647041e-003
      -2.35061115e-003 5.96543599e-004 2.49644648e-003 -3.89387860e-004
      -1.61635352e-003 2.26862103e-004 2.62683141e-004 1.27403543e-003
      -1.84433523e-003 -3.11565935e-003 6.59366706e-005 2.79958476e-003
      -2.24520662e-003 8.93875258e-004 4.33147931e-003 3.56523786e-003
      2.63502472e-003 -1.12495525e-003 -1.70248747e-003 1.39312097e-003
      1.21525838e-003 -1.53856678e-003 -2.18746345e-003 2.26449943e-003
      5.04133943e-003 4.26446460e-003 -1.13106929e-004 7.19411764e-004
      3.43096629e-003 5.54956321e-004 -2.89266347e-003 -1.39013201e-003
      -5.16749569e-004 -1.13311212e-003 -9.42056184e-004
      -1.59157487e-003 -7.48862163e-004 -2.50787172e-003
      -7.01687997e-004 -1.79847563e-003 -1.28801866e-003 7.78235612e-004
      2.49295263e-003 3.14622838e-003 5.50404657e-003 6.79987902e-003
      -1.33355916e-003 -7.97360262e-004 -2.66384333e-003
      -2.19064415e-003 -1.52707484e-003 -1.58823095e-004
      -1.18323565e-004 -1.91032176e-003 -1.98903866e-003
      -7.78271409e-004 -1.03144778e-003 -3.24054318e-003
      -2.15611001e-003 -3.77285236e-004 7.26058788e-004 5.56574319e-004
      4.08131024e-003 6.48733927e-003 -1.66551952e-004 8.32400983e-005
      -3.35500902e-003 -5.00112958e-003 -1.86722470e-003
      -2.55254010e-004 -3.08115879e-004 4.31886222e-003 5.67924930e-003
      -3.81556735e-003 -2.92351283e-003 -4.20932937e-003
      -3.82040557e-003 1.00802141e-003 -2.64329836e-004 1.60015491e-003
      4.36589168e-003 5.27840294e-003 -2.09796824e-003 -1.72701286e-004
      -2.87448289e-003 -6.63165422e-003 -2.23814161e-003
      -1.73800369e-003 -2.56493757e-003 3.70128429e-003 6.80633029e-003
      -3.91480932e-003 -3.46062006e-003 -4.69459966e-003
      -4.75240871e-003 -5.48251730e-004 -1.89303042e-004 8.85859699e-005
      4.60983207e-003 6.61402289e-003 -1.98864448e-003 -1.53595721e-003
      -2.77849450e-003 -1.03796960e-003 2.13674759e-003 6.98926859e-004
      2.46875035e-003 1.37909909e-003 2.85702129e-003 -2.39263696e-004
      5.25445095e-004 1.92069111e-003 1.04695570e-003 1.77715789e-003
      1.24209328e-003 2.56985892e-004 -1.26556004e-003 -1.15464942e-003
      -3.97084776e-004 4.23106894e-006 2.77433405e-003 -2.85329204e-003
      -3.10108706e-004 8.86473790e-005 1.64118782e-003 2.29746103e-003
      4.56142658e-003 -1.14367192e-003 3.56744364e-004 4.09541235e-006
      -1.44059813e-005 -5.23046881e-004 1.93211844e-003 1.49229355e-003
      -4.44929083e-006 -2.00269351e-004 -1.80509384e-003 6.64984167e-004
      2.66811415e-003 1.26211962e-003 1.02841505e-003 5.01347531e-004
      -1.10419514e-003 -2.02741614e-003 9.96402698e-004 -9.91308014e-004
      -1.30827539e-003 2.27430719e-003 1.28792704e-003 4.70552914e-004
      1.39897631e-003 -4.92413892e-005 -2.10311590e-003 1.68100916e-004
      -1.10116962e-003 -2.25436641e-004 2.24251323e-003 3.81356163e-004
      9.37198492e-005 1.52043544e-003 6.74175157e-004 -1.23718148e-003
      9.92816407e-004 -7.03675963e-004 -1.11595460e-003 2.07845424e-003
      1.83623633e-004 1.22389119e-005 2.59733084e-003 1.16503483e-003
      -6.97719734e-005 2.45238910e-003 -8.53190082e-004 -1.20296539e-003
      1.07101165e-003 -1.56568293e-003 -1.37366459e-003 2.27460451e-003
      2.88866716e-003 -3.87888067e-005 7.55449699e-004 -6.61714948e-005
      3.29481059e-004 1.26711291e-003 -1.87207619e-003 -1.64906215e-003
      1.56648539e-003 3.73978820e-003 1.11375935e-004 5.73726313e-004
      6.79257675e-004 8.61409528e-004 -3.95417068e-004 -2.21625157e-003
      -2.89379316e-003 2.77543114e-003 3.58519075e-003 6.75242569e-004
      1.93893153e-003 1.29282486e-003 2.69218057e-004 -5.30167017e-004
      -1.43312395e-003 -1.87083962e-003 3.15299490e-003 3.60194314e-003
      6.13337616e-005 2.86874187e-004 1.66246656e-003 7.44093210e-004
      -5.68983494e-004 2.39337023e-004 -7.04661594e-004 3.09533934e-004
      2.55172770e-003 1.92979898e-003 2.53202015e-004 -9.41052800e-004
      -6.62264822e-004 -2.00535680e-004 -1.39696302e-003
      -3.50352423e-003 -3.78537783e-003 -1.60650321e-004 1.21420657e-003
      1.69007585e-003 4.31408320e-004 -1.36953034e-003 7.69234204e-004
      1.08400267e-003 -1.09534001e-003 1.98254152e-003 2.31649866e-003
      7.69902312e-004 1.29126175e-003 1.10143423e-003 -8.69702199e-004
      -7.40997493e-004 -2.01330899e-004 -1.51175947e-003
      -4.92890016e-004 -9.40952392e-004 2.41253432e-003 2.22319411e-003
      1.93152716e-003 -1.28071802e-003 -4.85269236e-004 -2.05244822e-003
      3.56889184e-004 -2.51785945e-003 6.01297543e-005 1.31605449e-003
      1.62434590e-003 2.30851583e-003 7.31720123e-004 1.04923965e-003
      -2.76835822e-003 6.21276558e-004 -2.30397840e-004 5.35076996e-003
      3.58986109e-003 1.98183605e-003 -6.59885060e-004 -8.86143971e-006
      -2.46568513e-003 -1.90470193e-004 1.41476002e-003 -7.62052659e-004
      -1.10902207e-003 2.39780522e-003 1.81825052e-003 3.33918678e-003
      7.56392255e-004 1.51263177e-003 -2.18451698e-003 1.64048898e-003
      7.94489752e-005 2.43593170e-003 1.70095102e-003 9.62452265e-004
      2.47113698e-004 6.12112402e-004 -6.44157699e-004 -4.57544066e-003
      2.88290699e-004 -3.94483504e-004 5.38712088e-003 3.63458949e-003
      1.01794163e-003 7.18162803e-004 1.33750401e-003 -3.45879025e-003
      -3.73214856e-003 -5.74463105e-004 1.35210517e-004 3.17119341e-003
      7.03642087e-004 -7.47213198e-004 1.17894576e-003 1.74712576e-003
      -3.48378532e-003 -2.39601429e-003 -1.01178221e-003
      -9.12519929e-004 2.28317967e-003 2.57657422e-003 3.58497782e-004
      1.33756315e-003 2.08826666e-003 -1.05959084e-003 -1.08863413e-003
      -2.32032663e-003 -2.06385576e-003 -3.93596187e-004 1.12004892e-003
      -1.34612434e-003 8.56341270e-004 2.60664755e-003 -5.66821720e-004
      -2.02797772e-003 -5.85459813e-004 3.83403705e-004 3.18693742e-003
      1.05106959e-003 1.05599480e-004 1.10893801e-003 1.36066100e-003
      -1.94015622e-003 -1.18342554e-003 1.69702817e-003 1.65503158e-003
      -1.84923236e-004 1.77431107e-003 -1.33616349e-003 1.83305808e-003
      9.55813215e-004 -5.32053818e-004 -7.70699815e-004 -1.68388395e-003
      -1.39798375e-003 1.07829832e-003 3.88372398e-004 1.24353508e-003
      1.42808491e-003 2.31313007e-003 -7.18153024e-004 -1.40520118e-004
      1.96139677e-003 -6.91808236e-004 2.95256148e-004 1.31031848e-003
      -9.72996582e-004 3.71250499e-004 2.00145203e-003 7.07952786e-005
      -1.40078121e-003 2.71406909e-003 2.83326791e-003 -1.89935707e-003
      -1.90949696e-003 -1.15754653e-003 2.48227175e-003 1.30978157e-003
      -8.52242636e-004 4.75215347e-004 2.92432494e-003 3.19756614e-003
      -1.13891065e-003 -1.74454693e-003 1.78002112e-003 4.45669191e-003
      2.38010264e-003 1.77953960e-004 -2.28980184e-003 4.05197218e-003
      2.81598861e-003 -2.09216867e-003 -3.83156468e-003 -2.03722506e-003
      7.14707247e-004 2.15000799e-003 -2.09714682e-003 -4.32088826e-004
      3.12146265e-003 2.51271133e-003 -2.32161861e-003 -4.15094662e-003
      -5.58177242e-004 3.16040684e-003 -8.48348009e-006 -2.03310442e-003
      1.70048594e-003 7.24577869e-004 1.39929715e-003 3.79004719e-004
      -1.91055937e-003 7.95972999e-004 3.16454476e-004 2.16115513e-004
      -9.90541186e-004 1.88240944e-003 1.04468293e-003 2.79903039e-003
      2.16864562e-003 -1.44105789e-003 -3.87160020e-004 1.02282094e-003
      4.27417108e-004 1.15826691e-003 1.42927957e-003 3.87100474e-004
      1.74422457e-003 -3.11991572e-003 -3.55202844e-003 6.93810534e-006
      1.70024141e-004 -1.18655863e-003 -2.03192746e-003 1.48993894e-003
      2.03391514e-003 2.54153786e-003 -2.29144483e-004 -1.77416438e-003
      7.27173814e-004 4.68365266e-004 -3.98178759e-004 -7.73086067e-005
      6.52864328e-005 1.74366985e-003 2.17980146e-003 7.35863170e-004
      -1.33797247e-003 -1.38938078e-003 -5.95192949e-004 1.21114201e-004
      1.38554745e-003 1.64709135e-003 3.09536001e-003 1.86019391e-003
      -5.77913015e-004 -9.04795073e-004 -9.77815595e-004
      -4.03543410e-004 -1.24412181e-003 -1.47924075e-004 5.06098033e-004
      3.41200456e-003 2.37875921e-003 -8.04556243e-004 -2.65213917e-003
      -8.80986860e-004 -6.02383749e-004 -1.32292893e-003 1.11786101e-003
      1.71324844e-003 4.14523529e-003 2.10591475e-003 -5.37086802e-004
      -1.13349990e-003 -2.65375013e-003 -1.47357816e-003
      -3.19342362e-003 3.97911906e-004 6.23642409e-004 2.34815455e-003
      4.91769111e-004 -8.71293189e-004 -1.80821610e-003 -7.34908273e-004
      4.87836223e-004 -1.97610678e-003 -1.73859764e-003 1.24764093e-003
      2.77127046e-003 1.65316218e-003 -1.09030079e-004 6.00486528e-004
      9.25564207e-004 1.07351923e-003 -1.39890675e-004 7.11242828e-005
      4.67968130e-005 2.03425530e-003 1.42803852e-004 -1.47501077e-003
      -2.64851726e-003 -4.23238659e-003 -9.56219097e-004
      -3.22004454e-003 -1.70398818e-003 4.58560389e-004 1.85119570e-003
      5.01007191e-004 -1.76356130e-004 -6.03689114e-004 -3.62505612e-004
      1.77386182e-003 1.13746664e-003 -5.29386511e-004 1.62014295e-003
      4.00629081e-003 3.60540842e-004 -1.91935909e-003 -2.77393311e-003
      -3.00612464e-003 5.50022058e-004 1.42343168e-003 6.04676490e-004
      6.41499239e-004 4.07705037e-003 1.40117854e-003 1.25037995e-003
      -3.48738674e-003 -3.88824311e-003 -8.58428597e-004
      -9.18782025e-004 1.00378766e-005 4.51078592e-003 3.56700830e-003
      9.01945023e-005 -1.81364431e-003 -2.64489464e-003 -1.37408450e-003
      1.33264612e-003 2.40032258e-003 3.25044082e-003 4.75386577e-003
      4.44298238e-003 2.71952408e-003 7.29204985e-005 -2.14161212e-003
      -3.67625081e-003 -1.14217820e-003 5.34751416e-005 2.17001303e-003
      -2.00673845e-003 4.66453191e-003 2.96991039e-003 4.51326184e-003
      -1.07416115e-003 -1.36096240e-003 5.99417137e-004 -1.70643313e-003
      -3.92393349e-003 -3.86017724e-003 1.22340268e-003 3.29569099e-003
      4.04536771e-003 1.78088871e-004 1.29838160e-003 4.18930780e-003
      -1.90822722e-003 -5.14501566e-003 2.19498388e-003 4.80602123e-003
      4.91186557e-003 3.68707418e-003 -1.09759602e-003 -2.19907309e-003
      -4.16685478e-004 -1.25302933e-003 -5.56666346e-004
      -6.74555427e-004 1.31825660e-003 2.32467777e-003 2.72084191e-003
      -1.97251281e-003 2.36486224e-003 3.47131444e-003 -9.15146811e-005
      -2.39558402e-003 -3.73440189e-003 -1.81900326e-003
      -4.45599260e-004 8.56333645e-004 -3.00522661e-003 -1.84830686e-003
      -1.91682193e-003 -3.03327828e-003 -5.10639977e-003
      -4.02972708e-003 -1.67725305e-003 -7.24546204e-004 2.39762390e-004
      2.35343934e-003 5.07266819e-003 -1.41621951e-003 -6.77324482e-004
      -3.20606492e-003 -1.17116701e-003 -3.59930011e-004 3.72304603e-005
      9.86365369e-004 -2.89839320e-003 -1.48286077e-003 -1.21101702e-003
      -1.50990894e-003 -3.57674435e-003 1.19186495e-003 -4.60104893e-005
      1.12390774e-003 3.50293820e-003 3.30477301e-003 5.59928874e-003
      3.85066269e-005 1.80980598e-004 -5.89381089e-005 -5.45321312e-003
      -2.20921775e-003 -2.46181921e-003 -2.39525433e-003 2.14250269e-003
      3.90612218e-003 -4.62131388e-003 -4.09669522e-003 -4.14006412e-003
      -3.16022127e-003 -2.10610148e-003 -1.45265751e-003 8.43318194e-005
      4.34230734e-003 6.00833958e-003 -2.81775859e-003 -2.22303928e-003
      -1.78409473e-003 -7.62199517e-004 -7.21678603e-004
      -1.51306658e-005 -1.05961435e-003 8.06592638e-004 1.93090306e-003
      -3.98836285e-003 -3.31000891e-003 -1.05300825e-003
      -1.22315995e-003 2.06719182e-004 -1.37941359e-004 8.22140253e-004
      4.10211319e-003 3.19068343e-003 1.18356640e-003 -3.94799572e-004
      -1.75210985e-003 -5.39912260e-004 1.72652333e-004 8.69698706e-005
      3.45750013e-004 2.12167902e-003 4.39030118e-003 -5.05515083e-004
      -1.46313352e-004 2.74601858e-004 -3.21865286e-004 3.46776564e-004
      1.68925489e-003 8.07867676e-004 -9.44983331e-004 -3.07514507e-004
      -2.85244058e-003 -1.93555537e-003 1.39823812e-003 1.95702843e-004
      1.05722938e-005 1.24807411e-003 -7.59907474e-004 9.29329428e-004
      2.77857762e-003 2.86576687e-003 9.99587122e-004 8.96405254e-004
      -2.20279535e-003 1.07405230e-003 1.59758935e-003 4.69479637e-005
      -8.04784591e-004 1.26489263e-003 1.05636509e-003 -9.35669057e-004
      -8.30812147e-004 3.54814285e-004 -1.37470686e-003 1.00911071e-003
      2.53815344e-003 -1.35196396e-003 3.27646994e-004 -1.76346325e-003
      -1.86569209e-003 2.61346134e-003 1.38807052e-003 -1.16418712e-004
      1.16438232e-003 3.27080907e-003 1.09493209e-003 2.50477623e-003
      3.30732175e-004 -7.76555797e-004 2.07015220e-003 -6.16016914e-004
      -8.65080801e-004 -1.93980377e-004 1.81763270e-003 -8.27560842e-004
      4.27274266e-004 -2.24371121e-004 -1.80410349e-003 1.68860436e-003
      2.71965121e-003 -6.92619593e-004 -1.88294065e-003 6.96519273e-004
      -1.17883680e-003 -2.60747678e-004 8.69623735e-004 6.86050451e-004
      1.95637601e-003 -5.56115236e-004 -7.48749473e-004 1.69316225e-003
      2.49105855e-003 7.63017742e-004 2.18690746e-003 2.42875493e-003
      1.16716756e-003 -1.52752001e-003 -9.85047198e-004 -7.09167100e-004
      1.02225237e-003 1.90576038e-003 -1.05912890e-003 1.48800144e-003
      4.11207462e-003 9.50203394e-004 -1.49046571e-003 7.35141570e-004
      2.85649876e-004 4.24745958e-004 2.59282882e-004 -1.38754677e-003
      -1.34094048e-003 2.73305527e-003 2.46250862e-003 -3.83686740e-004
      -5.93320467e-004 2.11761406e-004 1.10542320e-003 1.21784920e-003
      1.29161088e-003 1.78729137e-003 3.46794864e-003 1.63126993e-003
      -1.34730828e-003 4.86284000e-004 5.26413671e-004 2.56355084e-003
      1.66662945e-003 1.35533657e-004 1.78363547e-003 2.66287127e-003
      -2.08673254e-003 -1.16535474e-003 -1.81689928e-003 1.27395382e-004
      6.50965783e-004 1.60398413e-004 1.15642359e-003 1.48115493e-003
      2.89123016e-003 -7.32590037e-004 -2.49656104e-003 -2.47099949e-003
      6.59753860e-005 1.62557105e-003 3.16702947e-003 2.20057392e-003
      2.75538466e-003 3.56088672e-003 7.48018676e-004 -5.19454945e-004
      -2.53831013e-003 -2.23281980e-003 -3.81959369e-004
      -9.01376698e-005 -2.30645121e-004 -2.52134661e-004 4.40103468e-003
      1.79231388e-003 2.10914786e-005 -2.52080359e-003 5.34972467e-004
      -2.50985671e-004 -9.42870916e-004 -5.29294193e-004 6.22589956e-004
      3.49434535e-003 1.18818495e-003 -1.48024829e-003 -2.20384379e-003
      3.35608987e-004 1.73673930e-003 3.46834352e-003 6.39485195e-004
      1.12074449e-004 6.35059376e-004 5.17452601e-004 -9.10272065e-004
      -1.83799816e-003 -2.17546406e-003 -2.36584427e-004 3.55124736e-004
      -1.89206598e-003 1.45808782e-003 5.19980118e-003 3.05808778e-003
      -8.98809696e-004 -9.86403436e-004 -3.94110211e-005 2.93682655e-003
      3.47702135e-003 1.74904737e-004 1.29515550e-003 1.55480823e-003
      5.80372114e-004 -2.44751992e-003 -5.87558025e-004 -1.18707889e-004
      9.25963221e-004 3.20609193e-003 6.31341391e-005 -4.88750229e-004
      -3.89690715e-004 1.03312056e-003 -8.15592939e-004 4.43020435e-005
      -3.77939461e-004 5.15462481e-004 1.37869024e-003 -8.95581034e-004
      -2.01909756e-003 -2.06169393e-003 -7.72790867e-004
      -5.88040484e-006 -1.74325483e-003 1.83658500e-004 1.73679250e-003
      3.06637702e-003 -1.93195848e-003 -3.68539069e-004 -4.56694223e-004
      2.59798719e-004 -6.62837585e-004 -1.47213903e-003 1.34364842e-003
      1.33111258e-003 2.02613231e-003 -2.13002716e-003 -3.73115391e-003
      -2.32959003e-003 -1.40097516e-003 -5.35015934e-005 2.21683295e-004
      -8.41211120e-004 -9.32678595e-005 -1.00972604e-004
      -3.77593911e-004 -3.65694374e-004 -1.18040734e-004 1.53448572e-003
      -4.42399381e-004 1.21443835e-003 2.01224000e-003 1.22590666e-003
      -7.39615236e-004 1.31727633e-004 -1.67495105e-003 -2.14972254e-003
      2.88435305e-003 1.45336933e-004 -4.35136346e-004 8.88063980e-004
      3.13910656e-004 4.07025858e-004 -2.75794329e-004 -1.09911978e-003
      -1.72537018e-003 -6.63298531e-004 8.43381335e-004 6.77055039e-004
      2.03407207e-003 1.19112933e-003 -2.06670864e-003 -7.04703329e-004
      -2.16625794e-003 -3.12491157e-003 5.56662781e-005 1.56824174e-003
      -6.17403479e-004 3.26604117e-003 4.35961410e-003 -2.65592779e-003
      -4.63674078e-003 -4.13261075e-003 -8.45507195e-004 3.59799131e-003
      9.41640974e-005 -1.60377158e-003 1.90393906e-003 3.63772735e-003
      -3.74760316e-003 -5.57200704e-003 -3.66426096e-003 2.58527440e-003
      3.42064630e-003 -4.61453310e-004 -1.47933746e-003 2.85286526e-003
      3.69327958e-003 -2.19587400e-003 -5.70258731e-003 -4.66053747e-003
      -1.75383070e-003 2.00769119e-003 2.34351447e-003 -8.12542334e-004
      1.92532805e-003 1.98308495e-003 -2.65797600e-003 -8.02968349e-003
      -5.53917559e-003 1.55585329e-003 2.96521792e-003 1.79123983e-003
      -9.42576735e-004 1.33717898e-003 1.85145088e-003 -3.81806260e-003
      -4.89037903e-003 -1.78167177e-003 1.53947866e-003 2.45404011e-003
      -5.86531707e-004 -2.96530547e-004 2.25884980e-003 2.13872734e-003
      -2.26095691e-003 -2.82742223e-003 5.92580182e-004 2.48247152e-003
      1.62218267e-003 1.03078911e-003 6.58622448e-005 3.97595897e-004
      -6.32816635e-004 -3.94651201e-003 -6.85938308e-003
      -3.63547471e-003 1.40047644e-003 2.39093648e-003 -2.49698613e-004
      4.84668381e-005 -4.61238669e-004 -1.27521611e-003 -4.15930199e-003
      -4.25995421e-003 -6.32062147e-004 9.53285140e-004 1.72503106e-003
      1.77552074e-003 3.89483866e-005 2.10498529e-003 9.14518605e-004
      -1.58414291e-003 -3.23645538e-003 8.68233037e-004 8.31334153e-004
      -2.92697106e-003 1.69057597e-003 8.68120289e-004 2.67375400e-003
      1.86756114e-003 3.16130318e-004 -2.28405069e-003 -2.93717807e-004
      1.26736495e-003 -1.96507433e-003 1.65240851e-003 -7.83536176e-004
      -1.98355308e-004 -2.07766099e-003 -3.50119523e-003
      -4.03453456e-003 1.14748126e-003 1.82241481e-003 5.00935188e-004
      1.35980081e-003 6.73008093e-004 3.45835084e-004 -1.56220584e-003
      -1.47252355e-003 -1.95827358e-003 1.06260763e-003 1.17026037e-003
      5.16086293e-004 1.46725052e-003 -4.55834495e-004 1.19709154e-003
      1.13123923e-003 -7.45122634e-006 -3.94827453e-003 -4.47407039e-003
      -9.87853506e-004 -2.78578838e-003 -5.19210414e-004 1.24708156e-003
      2.48867157e-003 2.26926641e-003 2.47215270e-003 -8.74712423e-004
      -1.50632963e-003 2.01037619e-003 1.36886505e-004 9.06741829e-004
      -1.88050896e-003 -1.61397271e-004 1.25371254e-004 -3.09169758e-004
      -2.16115150e-003 -4.28092142e-004 -1.38283373e-004
      -1.97395356e-003 -5.60983026e-004 1.26777089e-003 3.11227795e-003
      3.75885936e-003 3.21912975e-003 2.05576012e-004 -7.69123435e-004
      1.86382537e-003 -4.10128385e-004 8.54216516e-004 -7.34864036e-004
      1.32240832e-003 -2.16172170e-003 -4.89113852e-003 -3.36167216e-003
      -6.25299406e-004 2.74785492e-003 4.26346855e-003 -1.53036002e-004
      7.76049739e-004 1.46824226e-003 9.00419021e-004 -3.90216126e-003
      -2.44035199e-003 -3.76201840e-003 -7.08341715e-004 2.42528552e-003
      -4.00520621e-005 -1.36157032e-003 1.85706987e-004 -2.98362761e-003
      -4.20715567e-003 -2.38314481e-003 2.71137198e-003 4.36986890e-003
      7.21368333e-003 2.06351397e-004 -9.08849179e-004 1.44269282e-003
      -5.95947437e-004 -4.41333372e-003 -2.10191752e-003
      -2.79482105e-003 1.36547117e-003 3.13480454e-003 -3.91101436e-004
      1.47181528e-003 4.31496650e-003 5.23663033e-003 1.78156406e-004
      -1.24814943e-003 -1.78010494e-003 4.26109182e-004 2.12311582e-003
      -1.80052302e-005 -1.36365031e-003 2.35231477e-003 2.77763396e-003
      3.26635316e-004 -2.03271164e-003 1.91431236e-003 1.99513300e-003
      1.20859174e-003 -1.86256948e-003 2.53952720e-004 4.50188108e-003
      3.62780876e-003 3.44194646e-004 -5.28187375e-004 -6.34332653e-004
      4.85502969e-004 1.45956560e-003 1.11423913e-004 -1.21369364e-003
      2.07405724e-003 2.05402542e-003 1.03362188e-004 -2.89391901e-004
      3.03572626e-003 -3.00334825e-004 -6.55232230e-004 -1.91424496e-003
      -2.19117943e-003 -4.82337055e-004 -6.16702659e-004
      -2.52280477e-003 -1.72579964e-003 -1.91296276e-003
      -2.01185956e-003 -1.24710135e-003 -4.05686069e-003 2.28776038e-003
      2.22310820e-003 1.75615109e-003 1.90807041e-003 2.07274640e-003
      3.17328260e-003 -1.92969083e-003 -1.25922973e-003 3.02213630e-005
      -2.28513242e-003 -9.36905853e-005 -5.15662541e-004
      -2.65916414e-003 7.14564754e-004 -5.81861357e-004 -3.94698000e-003
      -3.33483377e-003 -4.68975492e-003 1.03208353e-003 3.28637357e-003
      2.42627435e-003 -4.78119211e-004 2.56618252e-003 3.73734278e-003
      -3.68186482e-003 -2.84418161e-003 -8.00236710e-004 9.68622160e-004
      9.49851179e-004 -1.43698649e-003 -3.34851816e-003 1.01254997e-003
      1.22703798e-003 -4.59974306e-003 -2.31916620e-003 -5.41591144e-004
      -2.92096898e-004 1.12164812e-003 -1.08024152e-003 -5.34106803e-004
      1.91313424e-003 2.70658988e-003 -1.61341904e-005 -1.03675316e-004
      -1.22552819e-003 -3.12692719e-004 1.67514454e-003 -1.35153113e-003
      -4.50986903e-003 6.90155488e-004 1.22204784e-003 -4.52574529e-003
      -2.85066292e-003 -2.31695105e-003 -5.36188891e-004 1.94258487e-003
      -1.10883627e-003 -1.44554034e-003 1.63298426e-003 3.40827974e-003
      -1.78535969e-003 4.32293920e-004 -1.27091701e-003 -1.97660280e-004
      4.24972852e-004 1.04101095e-003 -1.13215088e-003 2.29883427e-003
      3.35719599e-003 2.62088142e-003 2.81465077e-003 2.25288255e-004
      -1.94016448e-003 -3.65432061e-004 -4.37734328e-004
      -1.31137902e-003 -2.62814830e-003 1.89301698e-003 3.73190455e-003
      2.06092838e-003 -1.18241168e-003 -1.63312056e-004 1.21537771e-003
      1.53751200e-004 -7.36828079e-004 3.07056517e-003 4.96504083e-003
      8.43308633e-004 1.72875694e-003 -1.48762439e-004 -8.01664661e-004
      4.89019207e-004 1.43503316e-003 -1.45848456e-003 -1.40751817e-003
      1.36581529e-003 1.27677200e-003 -1.02441281e-003 -2.75590667e-003
      -1.04319479e-003 6.51467359e-004 1.77533552e-003 2.03561923e-003
      5.98672952e-004 2.30083475e-003 3.33951670e-003 1.22050312e-003
      -1.98689755e-004 -3.20356085e-005 8.76853417e-004 -7.84085889e-004
      2.32720777e-004 -6.52055547e-004 -1.00734607e-004 2.03164085e-003
      3.41538223e-003 -3.18619132e-004 -2.24916614e-003 3.09617288e-004
      3.66236991e-003 2.11386173e-003 2.14755558e-003 1.74179114e-003
      3.09971301e-003 3.33102478e-004 -2.62527028e-003 -2.42604199e-003
      9.99331824e-004 2.44425493e-003 2.29704267e-004 -5.84602007e-004
      6.94054528e-004 2.46755686e-003 1.47286430e-003 2.80284352e-004
      -2.00595357e-003 3.68631125e-004 -3.14412064e-005 6.97481883e-005
      -8.55058548e-004 -1.88893208e-003 2.69524124e-003 1.64809276e-003
      -8.76410399e-004 -1.56972813e-003 1.53601146e-003 2.16239085e-003
      1.74799340e-003 1.54050335e-003 1.26849650e-003 3.87831917e-003
      2.04724097e-003 -3.98959150e-004 -1.20669859e-003 -5.59454726e-004
      1.95293047e-003 4.21341450e-004 -1.87461730e-004 5.05743141e-004
      1.49132253e-003 1.17913727e-003 -6.45942288e-004 -6.41972467e-004
      6.94301445e-004 2.89912894e-003 2.92758876e-003 1.58431719e-003
      2.90759373e-003 4.04987996e-003 2.65384733e-004 -1.97560084e-003
      -1.77057041e-003 -3.49619571e-004 1.97510212e-003 5.59189823e-004
      2.53861857e-004 1.26327819e-003 5.16143488e-003 2.25881534e-003
      -9.80223413e-004 -2.57691229e-003 -2.34219595e-003 5.12185448e-004
      2.62235233e-004 -1.75816403e-003 4.99482325e-004 6.71894103e-003
      3.42353433e-003 -2.80622597e-004 -2.83564534e-003 -3.18985287e-004
      1.46067073e-003 4.78461996e-004 3.80984478e-004 1.89091230e-003
      5.86330798e-003 1.53305300e-003 -3.24621564e-003 -3.27806128e-003
      -9.69878631e-004 1.05790466e-004 2.87397474e-004 -2.62962864e-003
      -4.44461388e-004 6.99189911e-003 5.50193712e-003 -1.80256879e-003
      -1.78421766e-003 -1.66269322e-003 1.32477714e-003 9.40885453e-004
      -2.08048848e-003 -1.89193280e-003 4.34974581e-003 2.96027865e-003
      -2.65296199e-003 -1.76205253e-003 4.66096390e-006 5.12694428e-003
      3.17233545e-003 -3.69956746e-004 -2.51240330e-003 6.35725213e-004
      1.84621778e-004 -3.07490467e-003 -3.29992827e-003 -9.19560785e-004
      9.57818760e-004 3.08441173e-004 -4.06284537e-003 -2.24061217e-003
      6.78606844e-003 6.17723772e-003 -2.90303212e-003 -3.51677905e-003
      6.26152265e-004 4.13381634e-003 3.15176649e-003 -3.10909818e-003
      -2.95538083e-003 2.85832793e-003 2.08858983e-003 -1.73071038e-003
      -3.11060925e-003 3.46502638e-004 3.01849050e-003 3.43831000e-003
      6.54432923e-004 -3.36076017e-003 -1.16051920e-003 7.29674764e-004
      -1.40575087e-003 -2.69671530e-003 -1.37044393e-004 6.61809638e-004
      2.47384631e-003 6.46587810e-004 -3.91978351e-003 -3.90443159e-003
      4.75883047e-004 -4.51678643e-004 -3.69025208e-003 4.43838449e-004
      4.09357855e-003 4.37142514e-003 -1.00605015e-003 -1.50050502e-003
      1.23992749e-003 1.58535538e-003 -1.72210610e-004 -2.05643033e-003
      -1.37403142e-003 1.29457726e-003 2.37428676e-003 -1.47334673e-003
      -1.34690851e-003 -7.87641620e-004 -8.42999434e-004
      -1.13670900e-003 -1.27317850e-003 9.27200657e-004 5.96413447e-004
      1.84261543e-003 4.17568866e-004 -1.48739736e-003 -3.77014955e-003
      3.82012047e-004 1.58468494e-003 -1.29329588e-003 3.48480791e-003
      2.52837874e-003 -1.39383168e-003 -1.43429823e-003 -6.12938777e-004
      -2.78036739e-003 -6.83522667e-005 2.58906698e-003 -2.80131353e-003
      -9.40078695e-004 1.92073884e-003 1.63342245e-003 -4.04476450e-004
      1.96564215e-004 -4.83240146e-005 -1.33672962e-004 1.48767329e-004
      -2.64358451e-003 4.80597955e-004 3.73032037e-003 -1.32328409e-004
      -1.54965476e-003 -1.87571137e-003 -2.04659835e-003 1.19828190e-004
      2.14035343e-003 -2.35214201e-003 2.60015414e-003 2.95389513e-003
      -1.92457810e-003 -5.99638699e-003 -2.11228197e-003 1.07944426e-004
      4.16295370e-004 1.30776048e-003 -1.63928943e-003 1.91788620e-003
      2.05032784e-003 -2.08756817e-003 -6.42711623e-003 -2.68102600e-003
      1.93283218e-003 1.28255517e-003 -3.53517855e-004 -2.87340768e-003
      1.53183623e-003 3.11779231e-003 -7.04376434e-004 -4.92987502e-003
      -2.67364481e-003 3.93856928e-004 1.11204071e-003 1.62464357e-003
      -2.98178359e-003 3.32269049e-003 2.17787293e-003 -1.17488566e-003
      -3.15232924e-003 8.82139662e-004 2.21587229e-003 1.37687509e-003
      8.26590112e-005 -3.03940033e-004 1.65202562e-003 -6.91064110e-004
      -2.39166408e-003 -4.43560164e-003 -2.36367388e-003 1.76743744e-003
      1.82840321e-003 -8.82734748e-005 -7.00313714e-004 3.15328769e-004
      -1.27370202e-003 -3.28852888e-003 -2.91121658e-003
      -1.28609856e-004 1.39485800e-003 3.99248162e-003 5.21089882e-004
      -1.61672675e-003 4.64340934e-004 1.35858121e-004 -4.98267415e-004
      -6.30601426e-004 -9.81227611e-004 5.01725939e-004 -6.03531778e-004
      -1.26588892e-003 -2.72025645e-004 -8.83225293e-004 6.80750119e-004
      -6.46194501e-004 -2.51616887e-003 -6.75363699e-004 1.22546055e-003
      6.91168010e-004 -8.89916322e-004 -1.02974218e-003 -1.12371496e-003
      -2.12961412e-003 -3.99031211e-003 -5.15744090e-003
      -8.82380773e-005 3.13608418e-003 2.54135550e-004 -9.99688054e-004
      3.57419864e-004 6.24802997e-005 -2.09015794e-003 -2.32856488e-003
      -2.93544354e-003 8.62823683e-004 3.86268226e-003 1.50308863e-003
      -1.65921781e-004 -5.97384817e-004 7.46139209e-004 5.71338693e-004
      -1.77347928e-003 -3.71766486e-003 -9.12465563e-004 2.60347105e-003
      2.21483297e-005 -4.67294012e-005 1.73237838e-003 1.90122041e-003
      1.83808198e-003 7.99693880e-005 -3.59810749e-003 -4.89213271e-004
      2.08542333e-003 3.00261425e-004 1.93650881e-003 -2.60931579e-003
      -1.44102797e-003 -2.18371232e-003 -7.67925289e-004
      -1.36608595e-003 1.47880591e-003 1.62979530e-003 -7.12872832e-004
      -1.01517979e-003 -1.41695805e-003 8.83288623e-004 4.27202933e-004
      1.19565276e-003 1.52591744e-003 1.91922870e-003 3.34466854e-003
      -5.42068388e-004 -1.24964677e-003 -3.63274303e-004 1.27201073e-003
      -1.37909583e-003 -2.67497107e-005 -3.27685149e-003 3.03494453e-004
      5.21152979e-004 3.44880791e-005 -4.07065934e-004 1.33155219e-004
      -8.56686893e-005 -1.57726649e-003 1.07422100e-004 -4.68199229e-004
      1.31157564e-003 1.57796848e-003 1.43389171e-003 -1.81286025e-003</_></support_vectors>
  <decision_functions>
    <_>
      <sv_count>1</sv_count>
      <rho>9.7060130410227607e-001</rho>
      <alpha>
        1.</alpha>
      <index>
        0</index></_></decision_functions></my_svm>
</opencv_storage>
